1.170643545022193255e+00,4.829841421543965008e-01,-1.017895891363755467e+00,6.775890999672412596e-02,1.423097345990425866e-01,2.079718965717166912e-01,-1.570364377217913887e+00,4.136569632701390109e-01,-1.453164324413355635e+00,2.019094596266283848e+00,9.548552322851057150e-01,-1.690438544981030189e+00
-1.847906212129098336e+00,-3.584425138811199174e-01,-8.559367435912026423e-01,-7.291667980604180643e-01,-1.846007805933776114e+00,2.060208022135588957e-01,2.063673728075707536e-01,-1.007657166843852758e+00,3.636839812174874620e-01,-6.591801369680134748e-01,-2.012975928192958008e+00,6.329801554837535260e-01
9.635811012007841070e-01,4.135879269846005624e-01,-6.394810271596326201e-01,-4.435766285369691642e-01,-1.033684081973125446e+00,-8.331596870265867150e-01,1.089119986130850481e+00,7.015594613733890927e-01,-8.460891856972206915e-01,1.931832688706696111e+00,7.656303500515462268e-01,8.761163418133620651e-01
7.547538114639481543e-01,-9.303967143129027173e-01,-1.201147887120215918e+00,6.621477027581214037e-01,-1.189493085261521310e+00,4.668806401060945910e-01,1.065146965622926212e+00,-1.402076708910308944e-01,1.090474321882624942e+00,1.215999349720665368e+00,-1.559721700529735244e+00,-8.970407215120933531e-01
3.785601835038784890e-01,1.652082597375301276e+00,1.031672182369738566e+00,1.134659162174100899e+00,-1.274390804204374783e+00,-5.028415983339017403e-01,-8.209792280942931342e-01,1.234459604852916170e+00,1.110485440866416873e+00,-5.555335235073087796e-01,-1.693008911300286634e+00,-1.108051469729906646e+00
6.733696081448510284e-01,-1.425372548369349568e+00,-6.874600994649091579e-01,-1.096428975890739288e+00,4.425633888090418910e-01,1.116381887679369855e+00,1.212233281667947499e-01,-9.982746061468548149e-01,-1.416075237354770033e+00,-7.112573157393777823e-01,-9.718691007145293659e-01,-1.755349117789886781e+00
-7.786926621718258668e-01,-1.154349031918437296e+00,-1.366360922034931535e+00,-7.617044660466810724e-01,6.220656156000360371e-01,1.302000919173996962e+00,-9.197216039091199447e-01,-4.876649990657074274e-01,3.677313401232106260e-01,5.890929493484471369e-01,3.930122463991626014e-01,1.034694882397726001e+00
-1.300441445792319684e+00,-9.977700592219808373e-02,-1.412889252771123649e+00,-1.191823102650603761e-01,2.192063760574856218e-02,-7.999118532052746922e-01,6.304859536983942192e-01,-2.014298733254524798e+00,-4.717252841836213628e-01,-1.219622457632567825e+00,1.437134282499009652e+00,1.543854967868249772e-01
1.510552769618735525e+00,1.392061900064934798e+00,1.739015213872397547e+00,1.538759209117626092e+00,1.433638631242482919e+00,-8.922172561099128707e-01,3.291702256410713456e-01,1.351942890266573549e+00,-4.616850062040323693e-02,1.138905554063854630e+00,2.294813331362870745e-01,6.572459857013297491e-01
-1.655705135063258115e+00,-1.156120924530004812e+00,1.757790161541433305e+00,1.553151957425227492e+00,5.213163388136393683e-01,7.201136549565235745e-01,-3.259102870131929119e-01,-5.628106140611306429e-01,7.258943813149871804e-01,-9.793956745874508041e-01,-3.267909011733673430e-01,1.010280116945807549e+00
-6.234249477563578168e-01,-1.261435593102089969e+00,-5.919082934127051221e-01,-1.887694665266091351e-02,-1.393793540021589727e+00,-7.476696290323006089e-01,3.556037059251752064e-01,1.469005558874622253e+00,1.495309613149211847e+00,1.403414893711184996e+00,3.319088810735135731e-01,6.192979281962983640e-01
4.616418706666683969e-01,-9.544467162169575358e-01,1.649138096929126940e+00,1.181375972778778927e+00,1.480971382052931329e+00,-1.333128084133654800e+00,-1.752634183182426808e+00,8.911502072072267078e-01,2.007371631429299280e-02,-9.445449640648005962e-01,5.334215620672790870e-01,5.502815312399854560e-03
4.448046571608824107e-01,9.266340582991507979e-01,-5.057134052067346897e-01,-2.224014703686967576e-01,6.536118351224781131e-01,-1.202687867729136162e+00,3.908274639925621852e-01,1.500814604074461212e+00,-8.169030834702234456e-01,-1.658878766851146880e+00,6.974431263768512412e-01,1.478736750280769341e+00
-1.595794931023381436e+00,6.738157020310937828e-02,-7.450104303047553334e-01,-3.731856005201499848e-01,1.426422302615122595e+00,-1.309886873365103011e+00,-1.078515904695062311e+00,9.489898706004622486e-01,-1.023126583465947981e+00,1.289617605913842002e+00,3.072785701244716283e-01,8.144427523732059582e-01
1.067121973895824860e+00,3.877740154556140739e-01,-2.690341668509540485e-01,5.941447725405647751e-02,1.467712042561999830e+00,2.027449579737703900e+00,1.413067006012360682e+00,-5.512584689091891699e-01,-1.010518419684616420e+00,-8.341752499907867380e-01,1.009419125356299629e+00,7.802066957898146082e-01
1.166344984755719016e+00,-1.321925826599561038e+00,1.295854277548920130e+00,1.259048999624379883e+00,-3.473777034939480868e-01,8.581275247910805648e-01,-4.463022676627325658e-01,-6.665577825532842393e-01,4.555061984937368580e-01,-7.059614709174680813e-01,-1.235677283952062666e+00,-1.289271491893390076e+00
8.810686669149493389e-01,9.770435468595461970e-01,1.061665195255401484e+00,8.169863974671304208e-01,-1.280962741329065402e+00,-2.560456983806128628e-01,1.010126903516934460e+00,1.023113163578097451e+00,-9.573002247677081522e-01,-1.423804390906065198e-01,9.036419962953963214e-01,-1.644952967458132909e+00
7.450405067004854942e-01,1.359725999633585314e+00,1.913015506430246759e-01,-1.680729527464417616e+00,-2.721983914389513592e-01,-9.436806067904232043e-01,1.306991029816860994e+00,-6.661509336833946193e-01,1.533809219287183723e+00,-6.580403421744422943e-01,-9.227438271008759907e-01,-1.121216422936438084e+00
-5.463050525113288813e-01,1.630386774476956013e+00,1.436893145539674732e+00,-1.325640659756377904e+00,1.358591157476966238e+00,2.814877036635980434e-01,-1.067175028111652102e+00,-7.321249974566934604e-01,7.631628675733134193e-01,-8.319039271750178210e-01,7.942056338481925382e-01,-7.782460853903253595e-01
