-7.848489746446555282e-01,5.958665755663715702e-01,-3.728501274958145872e-01,1.060571004999932399e+00,3.696019231456111886e-01,5.638632751713378299e-01,8.632262002355529651e-01,1.128720346453129908e+00,-1.529944834102043849e+00,1.212724552107151910e+00,-6.009173357106725177e-01,1.390921721665990596e+00
8.933709342226847649e-01,1.200450821424107417e+00,9.492960028488919288e-01,7.594140086756691055e-01,-7.629439040754564250e-01,7.181022298615730159e-01,-1.481697990791077668e+00,-1.051830155462290639e+00,1.287934952475902506e+00,2.663059061977462449e-01,2.149205405354010501e-01,6.282023805967807961e-01
-5.256634302851939111e-01,-6.711877962901021677e-01,5.302182764769111101e-01,9.724295047778168666e-01,-9.394501869375888603e-01,-1.548495434441759411e+00,-6.708161945914730140e-01,1.121119911727674889e+00,1.175732948964213875e+00,9.085314253474834345e-01,-3.427940529142112780e-01,7.566505775292385882e-01
1.085766554556051977e+00,1.200113691836247387e+00,8.331572084676697187e-01,7.110910722949657092e-01,9.789126694393596173e-01,-6.786663526635744459e-01,-7.968902633312123784e-01,9.215944616192439653e-01,1.122455137678005199e+00,-1.443521081392469818e-01,-1.053909725566150923e+00,-1.458397942466141295e+00
1.218279735044672130e+00,2.460279442817191187e-01,-1.044451522732801063e+00,1.037159520730891682e+00,-6.536266302647174564e-01,-8.146283782991331490e-01,1.229679056693220751e+00,7.380886611857315760e-01,9.293111141790996177e-01,-8.699679864894542813e-01,-2.417381060974758966e-01,1.283266401735560613e+00
1.070044499496309420e+00,1.518926311685490083e+00,-3.346073302568349228e-01,-1.892723600561157182e+00,1.189485779628412648e-01,2.742488280448331928e-01,-1.071069717094015772e+00,-1.462866572631772888e+00,-7.216440342559682364e-01,4.595064277961350419e-01,4.025653526209389543e-01,-1.033091909593099711e+00
1.398524076817201145e+00,-5.058461196144115046e-01,6.520730254919301361e-01,5.494932522664011110e-01,7.659472931867199463e-01,-1.664622439922333275e+00,-3.696331972987252912e-01,-1.440210886080460995e+00,-8.225829793527525968e-01,8.081294534838400212e-01,2.910936326256708950e-01,6.582591484649015223e-01
1.454106184210621766e+00,1.661775749137140157e-01,7.661214289373925457e-01,1.317409011397851160e+00,4.531188087406246012e-01,1.562966914667558882e+00,6.563185243166409499e-01,1.677955094186764640e-01,-6.717242510860078619e-01,7.694488080423609322e-01,1.995013684956217226e-01,1.246626724668946196e+00
-8.581274797323545922e-01,-8.385545038584407695e-01,-1.565979772674087389e+00,1.726181857936840980e-01,2.347018153676057317e-01,-1.425393604195353880e+00,-1.095232259046847317e-02,-1.107142786428850112e+00,-1.024353125546927590e+00,-1.101491773122994289e+00,9.243349339967528167e-01,-6.963140131434951696e-01
9.079393749589512730e-01,-1.497976338631275661e+00,5.113099856041144475e-01,1.727557044670001984e-01,-6.417110801548580046e-01,7.907386342479733043e-01,4.952693045786524251e-01,-1.729773641492505121e+00,8.619310372569235490e-01,-1.648573135340294149e+00,-1.815653638403164905e-01,-3.323773008614051838e-02
-2.887732773641338291e-01,7.651680939647034774e-02,-5.650962471116259822e-01,-2.339319010662652132e-01,4.562113792671377288e-01,-1.788699828402942726e+00,-1.142793505300839341e+00,1.074553774711771936e+00,-1.228312088810116443e+00,1.561212978893996572e+00,3.538558115993881148e-02,-5.326342527147716055e-01
-8.740446736333851163e-01,-1.358468819661020399e+00,4.313411262437673588e-01,-7.120114258442569177e-01,-7.796451392804178981e-01,5.170764588915625071e-01,1.021659208693071141e+00,7.577273639882415868e-01,1.574046839850135049e-01,-1.630309026820816909e+00,1.555824121189588238e+00,-9.726060809632930404e-01
-1.220415971606197747e+00,-5.249476650575974901e-01,5.785901357588273397e-01,-1.255721896999921539e+00,4.803491987027295740e-01,4.524853868787751532e-01,8.970973775158810337e-01,5.691910559277995052e-01,7.104198620319104318e-01,1.081790402201774359e+00,-1.149404466410389958e+00,-1.627460883354687304e+00
-8.132926675177271081e-01,-2.359268194472500246e-01,1.346680867531325765e+00,-3.782027590737528921e-01,9.006175465628731835e-01,9.620700715442183082e-01,-1.010768448184421242e+00,3.233530285847231456e-01,-8.812545338786288429e-01,5.290592950968018293e-01,1.435077263537937853e+00,-1.123260053146792892e+00
-2.345998776394800922e-01,-1.172139889885741804e+00,-5.113693554598330859e-01,-5.800524702114585596e-01,-1.412148572921572365e+00,9.155558075113787719e-01,-6.073503061793896762e-01,-1.558634263067163905e+00,-1.412840238481729127e+00,8.930926454118945923e-01,-1.463163717738815151e-01,3.969389593674884087e-01
1.228880072530943446e+00,9.518274334255443225e-01,-1.341189461595841514e+00,-1.269528792047320387e+00,-1.254447912500694207e+00,8.560055698022478454e-01,-8.302537968918947131e-01,4.185922368812060035e-01,9.103004972023795993e-01,-8.083359827681760867e-01,-3.519446518552457603e-01,4.752707605469369545e-02
-1.220812462985138014e+00,1.767470427785498496e-02,-1.501363944134956885e+00,8.418259080327770150e-01,-1.184633810261753739e+00,7.834428253109667617e-01,9.309214210805437650e-01,5.339651062638799406e-01,7.507856746244385704e-01,-3.382138594543055987e-01,-1.024563298673346390e+00,-1.008893858892927264e+00
-6.277538609677431047e-01,1.709282627409859145e+00,-9.378467239255406929e-01,-1.191055392443989280e+00,8.018134011391212512e-01,9.689355951084012430e-02,1.416296792063016285e+00,7.392545131736930619e-01,5.361937037996576949e-01,-1.322761908732751790e+00,5.045497818538239310e-01,1.755048772971512239e-01
-8.310732449430573432e-01,-1.152604506389065087e+00,9.629944122971758613e-01,1.753656181560304395e-01,1.492948765148917500e+00,6.289335833218193672e-01,7.569287828131389118e-01,3.264242249894470094e-01,1.438013357913864587e-01,-1.554426247518477577e+00,-8.621406512059867078e-01,8.599187574018232194e-01
